{
    "input_shape": [
        28,
        28
    ],
    "preprocess": {
        "scale": 255.0
    },
    "Layers": [
        {
            "type": "dense",
            "units": 128,
            "activation": "relu",
            "W": [
                [
                    1.2579414865677183,
                    -0.24880329751312386,
                    -0.2508328568584472,
                    0.20968926659451587,
                    2.426675918171948,
                    0.4709105871308873,
                    -1.6600121249329887,
                    -1.0498937121537688,
                    2.1042758166942783,
                    -0.8650424808916339,
                    0.2942703288567573,
                    0.4131151688058776,
                    1.7488135772666231,
                    -1.5787970950897594,
                    0.6469971137193121,
                    1.3694531147317868,
                    -0.24376615799461251,
                    -0.84350313913798,
                    0.6422726209393586,
                    1.3689548140387917,
                    -2.018615396838143,
                    -0.25652844971986843,
                    0.2691826378951571,
                    -0.16014685029154233,
                    -1.672350291682941,
                    0.21866900870483183,
                    1.1566503190283115,
                    -1.2849016620054778,
                    0.3336236827009584,
                    1.5363326336735916,
                    1.8641247236136147,
                    -0.7466320461793498,
                    1.0528453154447994,
                    0.21711302782469366,
                    0.9827615363264142,
                    0.5551552091171102,
                    -2.3611841825491418,
                    -1.49483415308335,
                    1.5134184534745956,
                    -1.5149502268570563,
                    0.7168809202883262,
                    -0.6438343808125555,
                    -0.8916809519913157,
                    0.01680472753388911,
                    -1.3449500072432024,
                    1.0574953868094528,
                    0.7145709018434618,
                    -0.2324249888651936,
                    0.906919200939889,
                    1.5145284534500716,
                    0.06313623407055928,
                    -0.02968466593245956,
                    -0.056248233546009996,
                    -0.27956246881772445,
                    0.6166890781075071,
                    0.7052568503678721,
                    0.5113841954205965,
                    1.901270766093188,
                    -0.1552663617461438,
                    0.12953696536288453,
                    -0.5331797883560517,
                    -3.011318527125578,
                    -2.3138647079718133,
                    0.23045980049983827,
                    -1.093730842398255,
                    -0.23630333257797503,
                    1.1645481626748442,
                    0.28031470358171673,
                    1.0316027945347843,
                    -0.3399175906196623,
                    0.33739432588859986,
                    -0.3849783872339322,
                    1.1325604060711234,
                    1.0835620263433432,
                    1.4302452408233686,
                    -0.600289869687666,
                    0.10637670078547952,
                    -0.5357670215869397,
                    0.20039425790653279,
                    -1.223978881210641,
                    -0.4866798875513252,
                    0.6549120565523113,
                    -0.5975255381726581,
                    0.4719541590322368,
                    1.8965747253228549,
                    0.04034082268897034,
                    1.0776547384403927,
                    0.26670868235742323,
                    1.3757188284944568,
                    -0.07974945450142965,
                    -1.3571980010316367,
                    -0.27896391006171417,
                    -0.16180247080382923,
                    0.3471774377657966,
                    -2.0496712269828206,
                    1.331617809440818,
                    0.756203127670801,
                    0.9466083867222341,
                    0.6189788144269162,
                    -1.8213229908557989,
                    -0.1960903243720144,
                    -1.2444235959136305,
                    1.407879674739937,
                    -0.1478648318997902,
                    -0.7161126910839395,
                    -0.6188746970327754,
                    0.028173608964657208,
                    -0.1137341632375238,
                    -1.3295196001285652,
                    -0.6270710536931728,
                    0.8252666930218941,
                    -0.09026149915904506,
                    -0.01775517528886418,
                    -0.7535890540070217,
                    0.5625340145744585,
                    0.2607006390759998,
                    -0.5176658274647283,
                    -0.6018989159874345,
                    2.5846962610026676,
                    -0.11802542817895469,
                    1.1672500530142864,
                    -0.33298656217901,
                    -0.0038213514899882186,
                    -0.2596333710635621,
                    0.9667462248604312,
                    0.5161221860347343,
                    0.8723216617485299,
                    1.0958057350129426
                ],
                [
                    -1.3428898484249139,
                    -0.10176069930718533,
                    0.2027320093902518,
                    0.8369616478984219,
                    0.595488034840148,
                    -0.32843783193517734,
                    1.1108263494092365,
                    -1.7759708998255754,
                    1.9339828630993159,
                    -0.610679766641894,
                    0.07238902281916629,
                    -0.49755471335182955,
                    -0.8338566587363009,
                    -1.8396705602409877,
                    -2.209245949389086,
                    0.5808676653451224,
                    -0.06310335495536784,
                    1.1975853746649583,
                    0.17110400830492165,
                    1.7807829285211112,
                    -0.042107187905993666,
                    0.8033373288309519,
                    -1.1783292758603243,
                    -0.06767531501234364,
                    -2.0246371809654913,
                    -1.4072127041742122,
                    -1.0816505442399915,
                    -0.2035158238865847,
                    -0.4704617794110718,
                    -1.3407796255757816,
                    -0.27280541840213085,
                    0.3631091950683191,
                    -0.1321691791531623,
                    -0.17081862661914327,
                    0.33034418340545046,
                    1.0517003010755053,
                    -0.41966128923426177,
                    0.728989552855167,
                    0.1354200298899621,
                    -0.6760150351783246,
                    -0.7678558045850026,
                    0.15377826902845335,
                    0.9528244294006348,
                    0.658956989871338,
                    -0.23536187732392339,
                    -1.102862036908897,
                    0.7352149653564861,
                    0.18810136121858306,
                    -0.4687239621207016,
                    -1.0948446893493828,
                    -0.3301270023078783,
                    1.410148716188677,
                    -0.08587763380117716,
                    -0.5484114800811095,
                    -0.40373071230060914,
                    -1.0173574661208389,
                    0.9248682428938132,
                    1.1578670930762633,
                    0.9886155696655718,
                    -1.079481230437226,
                    0.04492811152638297,
                    0.3140126150576929,
                    -0.9674138707647539,
                    1.928013860596677,
                    0.2812303320243309,
                    1.159826121936759,
                    0.15709907354761038,
                    -0.10561533944414732,
                    2.116542331065016,
                    1.106996877487659,
                    -2.3930278639757665,
                    -0.11116644936643168,
                    3.027574496129238,
                    -0.47459322459113895,
                    0.644152418510468,
                    0.8605601243598535,
                    1.1199478300338546,
                    -0.16910972658822726,
                    -0.6840625209481938,
                    -0.04250752568772603,
                    1.371170700609498,
                    -0.6060399120997566,
                    -0.6890253274256442,
                    0.022505977641477635,
                    1.6338471929326088,
                    -0.18270105833248762,
                    0.2594560442091309,
                    -1.3328806325512865,
                    0.7622919538015654,
                    2.081750431482033,
                    0.27739114862489983,
                    0.11710029652026199,
                    1.44262137409697,
                    2.0962596700193594,
                    0.032573481693275536,
                    1.3333296876710654,
                    -0.3679236887340645,
                    -0.367836198351556,
                    -0.651732882994214,
                    0.3569650785233409,
                    -2.5878296396633558,
                    1.1612098088668488,
                    -1.1558645819269031,
                    -0.20021813571448255,
                    -1.2436589003870815,
                    0.8594968450656325,
                    0.07270336930200202,
                    0.5089201925061195,
                    -0.34696864380585324,
                    -0.3935567633434376,
                    -0.9297015175657634,
                    -0.9514951439892906,
                    -0.44261001191522675,
                    0.8416318281457734,
                    1.245745489248458,
                    -2.131133246141027,
                    0.2849236090600396,
                    1.119660901105736,
                    -0.4187967239652618,
                    -0.2907714106529782,
                    0.6876109955771049,
                    0.1843809866806611,
                    -1.1057736756318761,
                    0.18207945828441402,
                    0.1056897009100901,
                    0.9442893403728675,
                    -2.5124536079835336,
                    0.868564248547468
                ],
                [
                    1.55136731278285,
                    -1.0681659844453641,
                    0.8348060517300612,
                    0.5558950990406443,
                    0.9067938724759624,
                    2.2266012418666357,
                    0.772433398378518,
                    -0.7590173948102367,
                    0.5253255500506793,
                    -0.18377106566431622,
                    -1.3118465782145063,
                    0.6479916119214923,
                    0.26186103359231305,
                    -0.7285697897400109,
                    -0.06349470498939863,
                    -0.852084992933144,
                    -1.028837556280104,
                    -0.6842275381915257,
                    0.2804180853792338,
                    -0.2354743409530043,
                    0.5126529380790157,
                    0.14347095314599037,
                    0.8349437652667536,
                    -1.5920504920458205,
                    -0.26261881753061633,
                    1.1445378240349156,
                    -0.637955177558221,
                    0.8971628430283768,
                    -0.34310039034426293,
                    0.4669620800986967,
                    1.6254011312940668,
                    -0.21632850984186053,
                    1.050388847121424,
                    2.1406734761384008,
                    -0.09471018494814427,
                    -0.2492756141359539,
                    2.2892796017783494,
                    0.43589387891193004,
                    -1.92328846965481,
                    -0.1850641218581883,
                    0.8230151666867708,
                    -2.0588263730603678,
                    0.6439154443774556,
                    -0.04978829853713417,
                    -0.6358845090935429,
                    1.6060264207843382,
                    -0.01279771723692262,
                    -0.6416666757034247,
                    -0.036597014268068495,
                    -0.9616244564969161,
                    0.2297484451997682,
                    0.36082166568030233,
                    -0.507573084723206,
                    -2.011370357724935,
                    -0.818634808763119,
                    -0.3338389320493362,
                    -0.09801340004710779,
                    -0.18230789766280783,
                    -0.31194917710279024,
                    -0.34790399244978953,
                    -0.26400136704194876,
                    0.4241771112820207,
                    -0.08740081215006566,
                    0.022397533638854182,
                    0.07836641765950153,
                    -0.5701404216011587,
                    0.10922905447842363,
                    -0.12400655849306352,
                    1.217133919912201,
                    0.5180071554855126,
                    0.6193683201375776,
                    0.6803269121537386,
                    1.684815765782536,
                    -0.020500673960352912,
                    -0.4959017012750863,
                    -0.2750722850589831,
                    -0.51971132566731,
                    0.13994068149597136,
                    0.31385794951553897,
                    -0.8938798750842704,
                    -0.2287766971227959,
                    1.1492202140552803,
                    -0.15149131408586325,
                    -1.0600156333398167,
                    0.6159047540595979,
                    0.11051314339051048,
                    0.035562417602474354,
                    -2.3496398052446237,
                    -0.3385434951896071,
                    -0.44829306734419866,
                    0.11087269967282486,
                    0.44558358823472827,
                    -0.030430891701602028,
                    -0.523678278139547,
                    -0.3666568906831609,
                    0.032547361105096304,
                    1.2244091891762037,
                    0.3520841476653454,
                    0.1331246489126383,
                    0.061529331418677634,
                    0.8108502138770565,
                    -1.0854914582133346,
                    2.1015231614541365,
                    -0.6780766871810907,
                    -1.0820531546485495,
                    2.370687169294401,
                    0.7371259657947621,
                    -0.6784916069589567,
                    0.8886592441392667,
                    -0.8846117552140776,
                    0.9060002321768327,
                    -0.418586878873668,
                    0.15458447942537837,
                    1.073977716057317,
                    0.2732029863246006,
                    -1.9554158493446259,
                    1.3239675461822533,
                    0.025991270651622256,
                    -1.072339707431574,
                    0.6769200173103891,
                    -0.16475790232891388,
                    -0.38653193817743203,
                    1.4520406205080236,
                    -0.24499359670903065,
                    0.6331974909756767,
                    -1.070857231278343,
                    -0.3598803970748406,
                    0.8248310274827052
                ],
                [
                    -1.857492821722606,
                    0.8359181691855476,
                    -1.6448778427639335,
                    0.39267651629543143,
                    0.12176786747475475,
                    1.1519131481596867,
                    0.592223800408024,
                    0.1192115112427354,
                    0.694237298167906,
                    2.0632689635988517,
                    -1.494738017053804,
                    0.06687341514862466,
                    -1.0401006249876859,
                    1.0207841315386808,
                    -0.7378727127117691,
                    -1.6076400781761742,
                    0.3889491677867565,
                    0.053355972759243545,
                    -1.0137086916880569,
                    0.0643337592929867,
                    -0.07247504457821116,
                    -0.3676777911538401,
                    1.0246037148619196,
                    -0.5167225244617762,
                    -2.577820043301439,
                    -0.9796916114664617,
                    -0.5272870141218556,
                    0.16131604020159265,
                    -0.1391180823654456,
                    -1.228123181043458,
                    1.789159920733724,
                    -0.4698261941269712,
                    -1.64503162907296,
                    -0.2848626921207373,
                    0.4871442213843769,
                    0.3751099288821691,
                    0.434600486267981,
                    -0.9287073431338687,
                    -0.7172199289294102,
                    0.5395908219124661,
                    -1.3717447677545604,
                    1.4719596382249494,
                    1.5531075836947494,
                    0.32588812377305937,
                    2.7112337362891474,
                    -1.7039440980422176,
                    0.26969329222667315,
                    -1.653840022889196,
                    -0.18279639299369624,
                    1.0458962999651296,
                    -0.9326061792593192,
                    0.1305414716373632,
                    2.151867539292561,
                    0.2977754546409571,
                    -1.168672208750918,
                    -0.14892889749225013,
                    1.355468842098079,
                    0.21865362241466502,
                    0.16659345708548615,
                    -0.7059102551972744,
                    0.2674318613372678,
                    1.463741829068858,
                    -0.2053431097862489,
                    -0.18448668686187225,
                    0.03289502225876845,
                    1.9772463353730045,
                    1.7966432279329112,
                    -0.2133125179026921,
                    -0.1199692621363491,
                    -1.2475202845005824,
                    1.5300287427570367,
                    0.41832416156430147,
                    -1.037379013581261,
                    -1.9789430050214376,
                    0.8430410119508719,
                    0.5039972966818078,
                    0.5987135970376745,
                    -1.0051141376546395,
                    -2.551124692313622,
                    -1.9195159883166746,
                    0.9621572740865549,
                    1.286187840784961,
                    -1.7192977670838505,
                    -0.19586090196830194,
                    0.6877980937980106,
                    -0.13507717224088883,
                    -0.7647487243013505,
                    -1.9271715166729644,
                    0.3604780851537436,
                    -0.2923929054575303,
                    0.9413260358841463,
                    -0.23356898120732877,
                    -1.3229051001656236,
                    0.19520081263831388,
                    -1.2074352217511226,
                    -0.03071604437882165,
                    -0.521515648177216,
                    -0.49521177785691095,
                    -1.68559633786188,
                    -0.4222241341587221,
                    -0.15799807081716272,
                    1.190102762061508,
                    -1.2493182863575925,
                    -0.16238929076359182,
                    0.11133230693096892,
                    -0.808086463468128,
                    0.9507940077659227,
                    -0.7437868424178321,
                    -0.49216999836045455,
                    -0.8750609794592435,
                    -1.6996992615624509,
                    -1.4814195449796816,
                    -0.8361779142371427,
                    1.646190857062854,
                    2.0225461852761044,
                    -1.0609958229235061,
                    1.5246483902156636,
                    0.8239338783293932,
                    0.14331467666594883,
                    -1.1589920774407394,
                    -0.818033127297838,
                    1.2832322947045154,
                    0.6393651476093313,
                    -0.7905070322526311,
                    -1.6513586444138644,
                    -0.5859989950711029,
                    0.4018280643940016,
                    0.16904487718006134
                ],
                [
                    -0.9978704305177923,
                    0.11835437241592359,
                    1.1416716442785018,
                    -0.33738067318824827,
                    1.0247099557198565,
                    0.18402856658659208,
                    2.4249416464017757,
                    0.29563048201732145,
                    -1.8401569108198745,
                    0.28255892672002547,
                    0.1081134352101933,
                    -0.8643917267809422,
                    0.6970387469127299,
                    2.0916676939777195,
                    -0.0750974090169212,
                    -1.3500329464295677,
                    0.14500246456021587,
                    0.6479004301810448,
                    -2.2188775961769993,
                    0.1496166948482784,
                    -1.2448836279468234,
                    0.7897363432927544,
                    -1.620203511679105,
                    -0.6494851043818421,
                    -0.378201064900827,
                    -1.0175965540284413,
                    -1.4345805955101945,
                    1.380882326387637,
                    0.21455332642135128,
                    1.026510731876436,
                    -0.4047575491606432,
                    -0.14865241556303319,
                    0.28419292407337365,
                    0.332713798897134,
                    0.5749476407879783,
                    -1.468013808752755,
                    -0.6661954190987477,
                    -1.0209293727290532,
                    0.58695347823952,
                    -1.1958152209013133,
                    -0.842111859160882,
                    -0.19854952509066406,
                    -1.8051820689710902,
                    0.7650903249989967,
                    -0.9813423698516396,
                    -2.06963444493626,
                    0.011024174865751898,
                    0.2099169255846414,
                    0.2780193656175845,
                    2.1958462571926742,
                    -1.1785125697126468,
                    -0.34542933650646185,
                    -0.7438597007869361,
                    -0.96022440908665,
                    -0.08429280647943047,
                    0.4799544023090958,
                    0.23974020730750173,
                    -0.8957257574335717,
                    1.2675924979547837,
                    -0.379757613237181,
                    -1.0100583990178154,
                    0.2786796029766089,
                    -2.3447041415819583,
                    0.02623620388616725,
                    -1.6070951511473874,
                    -0.7832112050294578,
                    1.1618739907782134,
                    0.2588659378941457,
                    -0.29140293059984734,
                    0.7759621051082716,
                    -2.4373225860174283,
                    -0.24509815321530845,
                    -0.5932049720742305,
                    0.3428606660939575,
                    0.8209110984949216,
                    -1.3397822503191517,
                    1.052823669274712,
                    -0.41310315072615744,
                    0.7414763606328554,
                    -0.4246473214249133,
                    2.250954746840881,
                    0.3906278552575116,
                    0.38214928509191837,
                    -0.37177926304667325,
                    -1.6377791133525645,
                    -1.001030394581195,
                    0.49770803468978164,
                    1.6215101518864072,
                    0.676021829531771,
                    1.356266174293595,
                    -2.001640432148841,
                    -0.3874644051807899,
                    -0.9561988872101383,
                    0.6892151041993523,
                    0.7661369207787323,
                    -1.3380475660227795,
                    -0.2003955549603898,
                    -0.053005912590796934,
                    -1.0639547666641618,
                    0.8490054104731404,
                    0.539095418815143,
                    0.030811755406523464,
                    0.3097566506806039,
                    -0.13096690273861653,
                    -0.470571132896349,
                    -0.15962231575716548,
                    0.4130536311410769,
                    -1.3639087324300405,
                    -0.14144319811648629,
                    2.7124053102602868,
                    -2.2864520519425673,
                    0.5504727957150862,
                    -0.8921610068652372,
                    -1.1226306073921304,
                    -0.07958275897067242,
                    0.5729269257385788,
                    0.6863001849883985,
                    1.1505297005480757,
                    -0.6743116671393793,
                    -0.31503035794755313,
                    -1.4680437041126368,
                    0.6675720510876587,
                    -0.2793889006468506,
                    0.11032931117102109,
                    0.2985524779376768,
                    -0.19487848593072243,
                    -0.22264253649708818,
                    -0.7883631606196547
                ],
                [
                    0.6732254035978366,
                    0.40643216927304265,
                    0.42413458070717003,
                    -0.6669525655248225,
                    -0.9595530788869293,
                    -0.9462553706027231,
                    -0.05296055200975979,
                    -0.03459907140076821,
                    -0.8221921239475755,
                    0.14668469964686592,
                    -0.4832183809935673,
                    -0.09470664159594695,
                    0.6315613085305896,
                    -0.6157635246187707,
                    1.8976609149481014,
                    -0.411034354616437,
                    -1.05408783742467,
                    -0.8746809409819414,
                    0.6219453380040505,
                    0.9639655273876688,
                    1.215963573343273,
                    1.4069635628430346,
                    0.771584166833053,
                    -0.6851419638548286,
                    -0.044854658983979404,
                    0.7682055891312846,
                    0.5964753241361903,
                    -0.6158476586130235,
                    -1.180077872241714,
                    -0.1273356629371033,
                    1.858271674218755,
                    1.4849831061027203,
                    -1.362152954474766,
                    -0.6791990191749296,
                    2.392344897283116,
                    -0.5365122835550912,
                    -1.8281604220400764,
                    -0.052720530083532134,
                    -0.105304205005993,
                    -0.13680013226187895,
                    0.0892762125278831,
                    1.634966232162648,
                    0.7959759788620032,
                    0.29754659858811877,
                    -2.169728833448843,
                    0.7713272447060409,
                    1.0929068502641193,
                    -0.3708317450889903,
                    0.2585331024230434,
                    0.7021905275838821,
                    -0.13534226353981346,
                    0.4216915713533979,
                    -2.366290953645618,
                    -0.2949284829623947,
                    0.703605371353034,
                    -0.8024939290412921,
                    -0.6345563414227766,
                    0.04977736704117633,
                    1.3125029339976952,
                    -0.06301215206060563,
                    0.4199751358293033,
                    0.9431948290789824,
                    -1.5972318342592684,
                    -1.0788061248171634,
                    0.5247675066438701,
                    -0.5369051960779004,
                    -1.2633564907902923,
                    0.6900915107492102,
                    -1.6234542165590624,
                    0.6375085119086039,
                    -0.17037303158428524,
                    1.0058242634049188,
                    0.33475983686929395,
                    0.5440288073667677,
                    -0.5999871380045774,
                    -0.2539660748731156,
                    0.9155562738021414,
                    -0.7976406245054011,
                    -0.602370292308223,
                    0.5069829704011046,
                    -1.1125973665950524,
                    -0.5874472678441669,
                    0.45466784255658804,
                    0.23390158524305876,
                    -0.15668289920473102,
                    0.37537797547341756,
                    -0.3996645466109825,
                    -0.21292348852753798,
                    0.5433483189001839,
                    -0.7930328004145291,
                    -0.8130647478080376,
                    -0.22940474556541515,
                    -1.027027290409021,
                    -0.026297011182122045,
                    -0.43526354055297706,
                    0.05773030472562894,
                    0.2566543250525816,
                    -1.2793906537668343,
                    0.15433496930306784,
                    -0.7152483953936686,
                    -0.9508873318025017,
                    0.3204578700340666,
                    0.38319106233620387,
                    1.0926776921442665,
                    -1.9319703836845612,
                    0.614932378875588,
                    -1.7425074721365157,
                    0.23891846890344565,
                    1.6070724838496449,
                    -0.11228798355492217,
                    -2.052164906975446,
                    -1.0226519265862277,
                    0.9088504094236296,
                    -1.0591530963420945,
                    -2.920024487029846,
                    0.35302639221421456,
                    -0.6808750138705381,
                    -0.6402722001713442,
                    -0.5657306499900434,
                    -1.897330327051998,
                    -1.5086596304792155,
                    0.5244785374525924,
                    -0.44410913768388666,
                    0.36515991783449303,
                    -3.7919374180095313,
                    -0.7580201223793684,
                    0.8201602055810308,
                    -1.7474622092309469
                ],
                [
                    0.3709468660267803,
                    -0.515267148335186,
                    -1.0358228882536165,
                    -1.12090452197868,
                    0.3180927206191764,
                    -1.269222939618586,
                    0.4560235918259117,
                    -0.2842551515080474,
                    0.366500475616273,
                    -1.3705494198972414,
                    -0.8963453382275378,
                    -0.10314014673750188,
                    0.10254444335834999,
                    -1.4392769010132138,
                    0.279350898477836,
                    1.4252792933504428,
                    0.6034384447174841,
                    -0.8261708284588307,
                    0.02825024039066462,
                    -1.1161164507728314,
                    -0.29745721601405756,
                    -1.1635358587474387,
                    -1.0323275723732468,
                    -1.1896239981570162,
                    1.5908151526076948,
                    -2.2665888515177035,
                    -0.2908778283831324,
                    0.2062434478835097,
                    -1.7749622350430432,
                    0.264215288621404,
                    0.35950023241107315,
                    -1.1351391961854747,
                    -2.06342468280618,
                    0.4855471124449126,
                    0.08398837101084117,
                    0.24256367857216476,
                    1.1786861781590245,
                    -0.022314080927733498,
                    -1.5426797332685191,
                    -0.036741701355116174,
                    -0.06344767666209909,
                    0.32012113794675334,
                    0.3324328741924948,
                    -0.08868749740328183,
                    -0.5017537439293108,
                    -1.9584675271978038,
                    -0.845713088640701,
                    -0.6911359438121847,
                    -0.6531281457288948,
                    -0.42872236064188984,
                    -0.8190504626011565,
                    -1.4005674405201585,
                    1.4214087350694895,
                    0.5405032687998944,
                    0.007316969817567886,
                    0.3736906762166285,
                    0.375730598588791,
                    -1.314390752022878,
                    -0.6252480908352351,
                    -0.25650448524450664,
                    0.4868858122392241,
                    -2.733651233172525,
                    -2.013707101224658,
                    -2.0679038209019147,
                    -0.9103995159215046,
                    -1.265806289715444,
                    1.8211345714899045,
                    0.8382262256953005,
                    2.424852003467275,
                    -0.2949530233492751,
                    -0.4271842477917753,
                    0.8228981642048463,
                    1.2867598325966123,
                    -1.6871530026668162,
                    -0.5810553143024749,
                    0.9785420751605545,
                    -1.0137217775496836,
                    1.1929875442872477,
                    -1.3527764772977935,
                    0.7584629417077524,
                    -1.9749961610984859,
                    0.6329447803219171,
                    0.26180556261771726,
                    0.10159326235501986,
                    0.5278212455058613,
                    -0.031638352018395745,
                    -0.426500211248808,
                    0.8595607376081654,
                    0.5086243067217452,
                    -0.25086670821281104,
                    0.48588228176237225,
                    0.13509687063582157,
                    -0.6392718023738283,
                    -0.0825264398618898,
                    -1.2561022569054943,
                    0.7904159330731914,
                    -0.024221760959968842,
                    1.0468435503904958,
                    -1.1182917294152346,
                    0.23868933832271463,
                    -0.28811685094712497,
                    -1.6383429007738757,
                    -0.6963695837503107,
                    1.0586484855822924,
                    -0.7058901409008843,
                    -0.6404469743001785,
                    -0.5081941898002635,
                    0.5450149585872459,
                    -0.6056336996345981,
                    0.9549646346646639,
                    1.2636857853727568,
                    -0.6337697064999517,
                    -0.07423433639884143,
                    0.5823733026811398,
                    0.0979183161547004,
                    0.8275210058412088,
                    0.4122576288997986,
                    1.2197021120893572,
                    0.17875485160591376,
                    0.18479739693314823,
                    -1.0957270403683177,
                    -2.5814691824753933,
                    -1.7393498230744038,
                    0.5062942377837754,
                    2.5467931298836675,
                    0.7943545359634642,
                    -0.02409534707663095,
                    -0.33177879873652694
                ],
                [
                    -2.1206738262700884,
                    0.5223804946927944,
                    0.34339618610336614,
                    1.6162531249748224,
                    -1.132667628522743,
                    -0.3121065642032006,
                    -0.3384028705517206,
                    -0.13880276337687988,
                    1.491659652999353,
                    -0.8003916544340133,
                    2.3694046790476846,
                    1.1148659435947565,
                    1.241485301679695,
                    0.485115957377143,
                    -0.07671845782367846,
                    -1.5375938278857912,
                    0.025495457038822885,
                    -0.7691625799900578,
                    0.5459816806379414,
                    -0.12966960715125417,
                    0.8876522170209561,
                    -1.3794025820093816,
                    2.044928446645526,
                    0.7419527386240209,
                    -1.2055099727981708,
                    0.6735619189136351,
                    2.3796709086957706,
                    -0.35197108169798147,
                    0.9012525396539927,
                    0.2589180774664569,
                    0.28821368633344274,
                    0.3410852944022056,
                    0.2719668669862295,
                    -0.4060338389138424,
                    0.6250792204481153,
                    1.0561276988238462,
                    -1.1275107705973872,
                    -0.10507369170766657,
                    -1.3883787452646417,
                    -1.0466967713139186,
                    -2.5598476085564013,
                    -1.4866067128927605,
                    -1.7042270210430928,
                    0.18421469259050552,
                    -0.5228006359692001,
                    0.46831535119048057,
                    1.9722089392098259,
                    0.48447651296613836,
                    0.38970198538532025,
                    -2.0593347887409745,
                    1.5925411253947077,
                    0.5464032969715455,
                    -0.6725275488428252,
                    -0.4017060148115895,
                    1.0890348106777386,
                    -0.336583887998527,
                    -1.4049981022414468,
                    0.1422623957893194,
                    -0.45906359252575096,
                    -1.4312008403905672,
                    0.1806464537065625,
                    0.5508874709100811,
                    -1.1733291652791362,
                    -2.9926584937711156,
                    -0.6274352156950881,
                    -0.39570935194504564,
                    0.16145922552756725,
                    -1.7622864032915797,
                    2.5892994912114284,
                    -0.3983685241321608,
                    0.2200475572396203,
                    -0.883426380217328,
                    -0.5493117275985557,
                    1.2013961093111312,
                    0.08966234223653102,
                    0.5175857747704509,
                    -1.1624754762663845,
                    -0.31608482241450786,
                    -1.0737081162766278,
                    -1.2988816077086769,
                    0.2549213978717373,
                    0.9288855381072441,
                    1.6169757981272943,
                    0.8766649783871854,
                    0.7705058203021518,
                    2.8003852764867916,
                    0.71977420316493,
                    0.7955052374689003,
                    -2.006655484393329,
                    1.0463561047468326,
                    -1.0597154204316626,
                    -0.6918437478159162,
                    0.12149607135998712,
                    0.6752833750792374,
                    0.6931189182665478,
                    -0.7209773311290147,
                    1.155105131575855,
                    -0.9882899560443719,
                    -0.6196927823736048,
                    1.133271663321934,
                    -0.23158594895556617,
                    0.1841727816098559,
                    -0.43943951209825693,
                    0.31825266224690746,
                    0.5738925016342123,
                    0.4524957779603046,
                    -0.03656005606951087,
                    0.21877116098451765,
                    0.6752683510176405,
                    1.0305151200962546,
                    0.6477801850086444,
                    -0.347930339948213,
                    -0.6881199079450243,
                    -0.7975946693418785,
                    -0.5287235134094255,
                    -1.8556296935224486,
                    0.9069028795469053,
                    0.3033428284378819,
                    -0.8973963343005479,
                    0.21971704455619795,
                    0.5848452263437631,
                    -0.9040642321803017,
                    -2.085959124645528,
                    -0.31591710265946726,
                    0.02948629673748863,
                    0.8475902247913788,
                    1.0481953362867176,
                    0.3802261672297879
                ],
                [
                    -0.13903710239295444,
                    -1.076474073978464,
                    0.6465744803113065,
                    0.03600684649774776,
                    0.38726428743571695,
                    -1.209656433036775,
                    0.780963491960542,
                    -0.39267822228155075,
                    1.2110943842801831,
                    -0.39403760657700937,
                    0.09339059972840169,
                    -1.473408254008218,
                    -0.0021790554458268694,
                    1.6205194608248967,
                    -0.40464366623455467,
                    0.9683723962217876,
                    0.5656668001106195,
                    1.185119674173125,
                    1.126581904655001,
                    0.727192981733907,
                    1.7825610769209137,
                    0.029580895509819956,
                    0.2838862954567891,
                    1.1802677082756352,
                    0.9571436991473764,
                    0.35051606617813286,
                    0.5895783821665158,
                    0.29515571938949225,
                    -1.185989279463361,
                    -0.6855203377863797,
                    -0.12987495306944694,
                    -0.45565581344977746,
                    -0.5802841987027132,
                    0.06100175760685429,
                    -0.3512343144707039,
                    -1.1238088374526023,
                    -0.6350547378375797,
                    -0.790423777241547,
                    -0.7947085414728684,
                    -2.1014843168874076,
                    -1.543099484964404,
                    -1.0295549298841966,
                    -0.3935506421046059,
                    -0.6808520689258278,
                    0.47868603796975867,
                    -0.7937730521906103,
                    -0.7227404152016013,
                    -0.38222893359121973,
                    0.32605270365726813,
                    1.8456107203200132,
                    0.6432474546161933,
                    -0.5068046526089169,
                    -0.17200671880964252,
                    1.6557684577127538,
                    0.8466545647957588,
                    -1.0751287199973627,
                    -1.5195222834639823,
                    1.748723413953186,
                    -0.7554902980735312,
                    0.7631696612311981,
                    -0.09242687040575216,
                    -0.965173713780982,
                    -0.9635074507168306,
                    -0.14767737788555257,
                    -0.15872551190784234,
                    -0.03225865662688169,
                    -0.38789593800333266,
                    1.2489427483323348,
                    0.6237601292596163,
                    -0.6765137439306825,
                    0.3418228400753701,
                    -0.8936648416130856,
                    0.5415138261489933,
                    -0.534923764575089,
                    -0.11479638117787609,
                    0.68354754410073,
                    0.6500126745134828,
                    -1.7073344116608993,
                    0.033387795640156516,
                    1.690893045726238,
                    -1.8743165385711513,
                    1.1333664148405231,
                    -0.977059451398793,
                    -0.6942439002550296,
                    0.9429115837800699,
                    -1.9852463641089872,
                    -1.6591199738770708,
                    0.5006739444922246,
                    0.7986149917420069,
                    -0.5557144190615865,
                    0.5540923752108954,
                    -1.246030822634752,
                    0.047346995037961,
                    -1.0810655802401432,
                    -0.1026534373909422,
                    -0.31471710437300293,
                    0.06336335752143528,
                    0.036017859865872325,
                    -0.4026613445848928,
                    0.1871853207022177,
                    0.4646093917664529,
                    0.39185119799391066,
                    0.19163600443159276,
                    -0.2978529167982481,
                    0.7340632046029928,
                    1.1418526251089038,
                    -0.3527220299319689,
                    -0.6102830268469885,
                    0.6460165051074791,
                    0.1440128483867843,
                    0.4330187062241531,
                    -0.4315815575834852,
                    0.15803540070613825,
                    -0.0784633951492329,
                    -1.3328358145510728,
                    1.3685642341149427,
                    0.15920854570537685,
                    -0.04352601961737851,
                    1.2469177834912897,
                    0.5635416762452141,
                    -0.19501600913816394,
                    0.6747188455038795,
                    1.348714087603697,
                    0.4913143269471046,
                    -1.2003850413639916,
                    0.029304310827494864,
                    -1.0243514062472963,
                    1.1059357909753444
                ],
                [
                    -0.8252482219645109,
                    0.15415573310696074,
                    1.3550423558723588,
                    -1.855169936883007,
                    1.292653859966687,
                    -0.3133360036176443,
                    2.3559381143257867,
                    -0.49401424560560975,
                    -0.8312884627711551,
                    0.35121377428287814,
                    0.7943274191943849,
                    -0.21426901885296679,
                    0.812383487667033,
                    -0.24456638580461815,
                    1.2594375247040048,
                    -0.0014470710626087295,
                    0.9984500849610548,
                    -0.10218912550926802,
                    1.7779755180153625,
                    0.6283919462966836,
                    0.012138118531794794,
                    0.06307039883411321,
                    -0.40946057738598723,
                    0.8132669006663137,
                    -0.28584192466789843,
                    0.17151364511832634,
                    -0.949612022221224,
                    -0.29770705893540955,
                    -0.41540517692452195,
                    -1.7593429839243466,
                    0.08766068195953818,
                    0.27679926377804864,
                    -0.329250821393831,
                    -0.2072605793461908,
                    -1.630755273463904,
                    -1.5707698944983337,
                    0.6509166585205829,
                    0.06776557853935133,
                    0.10682457738778221,
                    2.3026296826142274,
                    -0.3454627562101698,
                    0.027589151331783662,
                    0.9514477425179233,
                    1.1524523261846724,
                    0.26418468517816673,
                    1.3551030875481322,
                    -0.6093806771196074,
                    0.4143449545955121,
                    -1.5560088998949382,
                    -1.5123443034146358,
                    -0.535402081636607,
                    -0.9047159003186288,
                    -0.10837505279694974,
                    1.0118421737469638,
                    0.14492848614909284,
                    -0.5075370817817317,
                    -0.10650579484174934,
                    0.0850037100918322,
                    1.5995906241725688,
                    1.2657467868910364,
                    -0.9165291881899332,
                    0.2930643802164367,
                    -0.38173572648392134,
                    -1.5046886741682604,
                    1.373603321294017,
                    0.37364542755668445,
                    0.6276624437242957,
                    -0.2941620972316645,
                    0.10896616999777121,
                    -1.0432569824533326,
                    -0.11569666754496322,
                    0.9406535784276939,
                    -1.2204629831015987,
                    1.0121620885770721,
                    0.6393713080309764,
                    -0.46115534632026006,
                    -1.6513882616483428,
                    1.1064467791249557,
                    -1.125841084136715,
                    -0.859201544054659,
                    -1.4398348216784633,
                    -0.4264446483352,
                    0.0840067438183069,
                    0.7570411506194806,
                    0.27523295669928555,
                    1.0028398411820145,
                    -1.3796596985613672,
                    -0.5440961365194296,
                    -0.9393858973034619,
                    -1.7131049217877314,
                    1.3055888792199415,
                    0.7482977125044878,
                    0.794791590338483,
                    0.7425007493970812,
                    -1.001931853811843,
                    -0.01761338221515565,
                    0.20016927223247888,
                    1.2147402632226671,
                    -0.40988053933251145,
                    0.5962367706221976,
                    0.3205568822652124,
                    -0.5598855428719569,
                    -0.7661089140806282,
                    -0.43402076267294404,
                    0.48940999470487107,
                    -1.615801062746862,
                    1.1104021168856408,
                    -0.41391563401528925,
                    1.1069629164904806,
                    0.5026578102565039,
                    0.10239771047198748,
                    -0.9610827137401479,
                    -0.37773862187989166,
                    -0.8846956588371745,
                    1.245932260980174,
                    -0.8145760812538618,
                    -0.030428788071185715,
                    -0.7588736758018279,
                    -1.094854006862294,
                    0.32982828290905475,
                    0.293486013151525,
                    0.28869208927074747,
                    0.273039879164144,
                    0.06105553984361116,
                    -1.8406384935021194,
                    0.7609283103733475,
                    -2.0248483976795693,
                    0.25105266061449893
                ],
                [
                    0.5055321806930744,
                    -0.6755814229880938,
                    -1.3356680944463897,
                    1.1838354640751767,
                    -1.888225015591501,
                    -0.40446348284013556,
                    -0.8341714847026471,
                    1.4460513018179066,
                    -0.22090248048862973,
                    -0.18239725174155627,
                    -0.9203915063429171,
                    -0.4637752732014839,
                    -1.0097836652749068,
                    -1.7116875632728619,
                    -0.5599068974737912,
                    -0.718223725003815,
                    0.02623234229061638,
                    0.8166209426711022,
                    0.12675486344819867,
                    -0.6176614232453045,
                    0.42327805703995836,
                    -0.43176570308880513,
                    1.7548484797305202,
                    0.22726509984134333,
                    -0.2692897119430568,
                    -1.3170215722308027,
                    -0.18260206562579842,
                    -0.11733519621437294,
                    0.49996297312509996,
                    -0.2864602712564041,
                    0.7373393838363302,
                    0.9602476820778186,
                    -0.4234242668750036,
                    -0.6289636460080542,
                    1.8007880196503212,
                    -2.339511746542522,
                    0.7861313299325743,
                    -0.7477340173214304,
                    -0.6101269333427716,
                    0.17292458961023888,
                    0.11522372392761654,
                    -0.3754018872104602,
                    -0.6589341464484912,
                    -0.014326828867780935,
                    0.4318406636968763,
                    -0.7281683313658588,
                    -0.022757550806674288,
                    -0.1593997715935123,
                    0.9504375200859213,
                    -0.5422196687012837,
                    -1.1050719566410077,
                    -0.2797356221556812,
                    -0.056187077034264,
                    0.4862349903340302,
                    0.5081143775284187,
                    1.5951672059850124,
                    1.440319432335878,
                    -0.4308839568025281,
                    0.4835415699482962,
                    0.5253810906070896,
                    0.9060676565018674,
                    -0.3579018438712129,
                    0.14936070575894125,
                    1.3530261830599708,
                    -1.298824899661002,
                    -1.5516934249881185,
                    1.2146432044740643,
                    -0.2865175471958431,
                    2.144665470707487,
                    -1.1050146100352622,
                    -0.9394384768197706,
                    -0.14944112412468918,
                    -0.9662844730112419,
                    -0.3758822200436277,
                    -0.17974642527224952,
                    -0.25106523985335405,
                    -1.6673672237492267,
                    0.4249390681874923,
                    -0.9826038208221282,
                    0.9851564657807382,
                    -2.058902223795814,
                    -0.5323626851783945,
                    0.7478514602055247,
                    -0.002531746820441661,
                    0.9525548441917283,
                    -0.507295985776707,
                    1.432389372017787,
                    -0.017638593241248265,
                    0.6082647270351774,
                    0.3254027954533144,
                    -0.5451816233547647,
                    0.9499077483311259,
                    -2.09342846119281,
                    -0.9472929048093792,
                    2.3664897355084995,
                    0.3426410907179864,
                    -1.9944716771156152,
                    1.0106864770683373,
                    -0.5531817433341951,
                    -1.02338995458508,
                    0.40813915471385126,
                    0.3557174738944171,
                    -1.2833905623842372,
                    -1.002723817790363,
                    1.2854064969294303,
                    0.9248080950817614,
                    -0.8543438556683289,
                    -0.14376695299249717,
                    -0.14083226519264197,
                    0.397070670766357,
                    0.8342997203063063,
                    0.7792832021046057,
                    0.8931932453759354,
                    -0.7787948175847315,
                    1.068897248582669,
                    0.6993553777972008,
                    0.32979607311132986,
                    -0.439278184816597,
                    -1.873883584888358,
                    1.1404686244986526,
                    -1.5778125485528145,
                    -0.1353049251629989,
                    0.6939916913563396,
                    -0.7499376022142414,
                    0.35744581944511716,
                    -0.7854598318155576,
                    -0.0445635223139543,
                    -0.386282307129855
                ],
                [
                    0.7158993727115909,
                    -0.15890974324127347,
                    0.5660898000968568,
                    0.8890991224234253,
                    0.24356154878332673,
                    -0.7060961155289477,
                    -0.04318277784123968,
                    -1.434839737761819,
                    -0.1448319676380379,
                    -0.9566756702443597,
                    -0.001968308353406873,
                    0.013980555106060038,
                    -1.0449438721450666,
                    0.37536404208524216,
                    -2.4496247603548307,
                    -2.576818011493503,
                    0.9621574421041864,
                    -0.8874120202269289,
                    -0.40828584169984017,
                    -0.61679655849606,
                    0.5344732378795736,
                    -0.4849252429726473,
                    -0.8697744763036989,
                    1.2834118347645747,
                    0.2947261855091895,
                    -0.37938379292710456,
                    0.3648517162992633,
                    -1.2162439301499601,
                    1.7663130205570976,
                    0.14670079323540067,
                    -0.8017316144730465,
                    1.0036687677379603,
                    -0.6859291349508218,
                    -0.7276637513879974,
                    -1.5826124104599963,
                    0.985145991072372,
                    0.5348031263439991,
                    1.3838146157899736,
                    -2.8894656416401068,
                    -1.4148810796090305,
                    1.5973167601647567,
                    -0.3990904875153857,
                    1.1088258214532627,
                    -0.8690743515311526,
                    -2.093198443729478,
                    0.049695348670212885,
                    -0.8981619108177712,
                    -0.9986326343987122,
                    1.3097954849221052,
                    -0.996525308361456,
                    0.10729559930073944,
                    -1.9182431185493298,
                    -0.30913264029484755,
                    -1.1340549240177245,
                    -1.92527925734084,
                    0.9662598245102634,
                    0.16176895280429354,
                    -1.1982654471423015,
                    0.5055923519072553,
                    -0.16856750444046695,
                    -0.9326615207964118,
                    -0.7917255510922379,
                    -0.2589887706032985,
                    -1.7192510160744374,
                    1.1423533886500958,
                    -0.3173604008091716,
                    -0.32771773803811477,
                    -0.7090995946896886,
                    -1.841267452785372,
                    1.547244700380231,
                    -1.6184173439442955,
                    -0.23263790063832435,
                    -0.49487087970916527,
                    1.7957041761478403,
                    1.4183149111730171,
                    2.388657394462764,
                    0.7912317481806376,
                    0.2631744747024944,
                    1.3661929175126948,
                    0.590482702331929,
                    -0.6983677634996488,
                    0.25670940396480035,
                    -1.643303513910591,
                    1.9188471950035852,
                    0.5813182533143694,
                    0.5149452596756432,
                    1.988783639001509,
                    -0.4210902332280912,
                    0.4512088566368224,
                    0.6243681141099996,
                    -0.27554811770048326,
                    0.04093315632864303,
                    -1.6885918553251185,
                    0.5326270541037231,
                    1.2251834648296038,
                    -0.24930748595961066,
                    0.4548096215493673,
                    -0.8716615353882874,
                    -0.7924547616178169,
                    -0.8621503896775135,
                    -0.0742406539720273,
                    1.380972131678727,
                    0.38289646220288576,
                    0.5076451896275699,
                    -1.2022619412888722,
                    -0.1752646765226894,
                    0.03879214548795506,
                    -1.616817071401085,
                    0.04680823954056181,
                    -0.2991438164925432,
                    -0.38556163961872636,
                    0.9904706481443777,
                    1.3265897859296825,
                    -0.5668149400838975,
                    0.028397436978732368,
                    -1.4305364834315037,
                    -0.8388739626254672,
                    -0.9253801794899165,
                    -0.6799040061693907,
                    0.8736546706309914,
                    0.5732351543958715,
                    0.18283466092009967,
                    0.7256007506678968,
                    -1.4510426022184117,
                    0.9610010333892913,
                    -0.25317392317395837,
                    -0.09543709548135303,
                    -0.015960854995961813
                ],
                [
                    -1.309827562769935,
                    -0.6408219287133423,
                    -0.07580167028145421,
                    0.9993193024577421,
                    -0.1116322315261662,
                    -0.8111558266274294,
                    0.836855040134792,
                    -0.07364887282500536,
                    -0.7339832563890486,
                    0.6049964697406394,
                    -0.05106504585064844,
                    0.6613685130997584,
                    -0.13918088571332327,
                    -0.5138010254204416,
                    0.2823210985144204,
                    -0.14791246672191224,
                    -1.5740158638245632,
                    0.6397258863092646,
                    0.6842173086841487,
                    -0.09922855817065367,
                    -0.3715909154912659,
                    0.13814502848289834,
                    -0.4046956812272484,
                    1.0236685027138959,
                    0.8860139268591023,
                    -0.02894891722678713,
                    -0.5433540503764634,
                    1.5215609815330802,
                    -0.7056060767349129,
                    0.0870095672895522,
                    -0.18624609939770093,
                    -0.6619439197799061,
                    0.9700909199353341,
                    0.725895642331518,
                    -1.1485670098007454,
                    2.1856671509049606,
                    0.6798329436865371,
                    0.038778901525547735,
                    0.03377114188494862,
                    0.39932262774256705,
                    -0.8008343293233198,
                    0.6100529552598662,
                    0.6720526250986781,
                    0.12134235766685439,
                    -1.7602958351502194,
                    -0.4693864253600182,
                    1.1576490427757489,
                    -1.1671597967238918,
                    -4.304069042420803,
                    -1.3455408493156156,
                    0.45998934686576465,
                    0.8697501999153152,
                    0.9066191262178739,
                    -0.35850161474643455,
                    0.4407228461856517,
                    1.5006298235466156,
                    -0.291948803441292,
                    0.6462605190363516,
                    1.3115617433949436,
                    -0.5270434144353816,
                    1.5178645498763348,
                    -0.17768296314563928,
                    -0.8769565538169922,
                    2.4003814849179084,
                    0.988274069096075,
                    -0.28604591673269564,
                    0.20050626835828994,
                    -0.25893722736105934,
                    -0.09234881476594244,
                    -1.582977915770023,
                    -0.6274402523671702,
                    1.300409931913189,
                    1.4411915731663663,
                    -0.7579385559623475,
                    -0.598627751184794,
                    -0.9681902936589355,
                    0.3832250525731457,
                    -0.44976496196948484,
                    -0.47358333045849216,
                    0.10394552856056276,
                    -0.6677027886850114,
                    0.9828311301238597,
                    1.4431069546977975,
                    -1.1820584416853526,
                    0.051461851707766564,
                    -1.3489063454470842,
                    -1.5221837319899587,
                    -1.352955977588874,
                    1.9819191480868996,
                    -1.0290874180860512,
                    0.3245176672593886,
                    -2.9545168926836816,
                    0.5916980448391072,
                    -0.7533760140336817,
                    -0.8555635956958538,
                    1.6228552676136632,
                    -0.5537749113310256,
                    0.19274617851196665,
                    -0.5114224438432443,
                    -0.060749077333101406,
                    -0.09930957118841398,
                    1.2224961259721259,
                    1.1147260112580766,
                    -0.09007722696817162,
                    2.3239619097951874,
                    -0.3616495526236861,
                    -1.337348327755399,
                    -0.014126101238082755,
                    -0.2059658863704427,
                    -0.8024931559565122,
                    1.453392972510097,
                    -0.43322410777772935,
                    1.2963863427880928,
                    -0.9432847381437859,
                    -0.49703196890707,
                    -0.45580583760075105,
                    0.7069195493531305,
                    -0.45882316821810304,
                    1.300989772253231,
                    -0.013573081821581083,
                    -1.199256719687526,
                    1.0820158692291812,
                    -1.8259397538783857,
                    0.4913726726678359,
                    -0.10328149987693401,
                    1.1389958897269548,
                    -0.7706654902603818,
                    -0.8494301450818629
                ],
                [
                    1.1951476292381717,
                    0.6910190406288585,
                    -0.1340189479475928,
                    0.3649702481142831,
                    -1.0949489068132607,
                    1.6045608087024323,
                    1.2462875357153287,
                    0.4150962062600657,
                    -0.02160772948419615,
                    0.8463228840236998,
                    1.3972717946262463,
                    -0.08902495502629673,
                    0.47778099211887043,
                    -0.5241867293430417,
                    0.9205186547826474,
                    0.12890578930150956,
                    -1.1878837398038018,
                    -0.7751347239367452,
                    -1.3225223761914078,
                    0.06257870739568183,
                    0.5955843162839596,
                    0.7888588801638337,
                    0.24600996379207293,
                    -0.5135402782669025,
                    0.9761500582188091,
                    0.5898570509340371,
                    -0.25773208819961113,
                    -1.5432001867826717,
                    -0.14273784384441368,
                    -1.1939650570421165,
                    0.7520439400066076,
                    0.321434963000538,
                    0.8299889273483458,
                    -0.7415716350583875,
                    -1.1189604886515727,
                    -0.07106166392132644,
                    -0.9678478183941306,
                    0.21355316392659196,
                    0.9372097751540714,
                    -0.14818471096246713,
                    -1.4455676105937971,
                    -0.11333811882036268,
                    1.7229549536139126,
                    -0.16347693554053094,
                    -0.5912385933939094,
                    0.1396205791398227,
                    0.5287824970888365,
                    -0.4151570319980617,
                    1.6879531578944595,
                    0.8284417044118303,
                    1.7459241638158995,
                    1.6073223923773647,
                    -0.0602505833898597,
                    -0.08749389112699973,
                    -0.011814755121190304,
                    -0.23289754538125146,
                    1.626172443447158,
                    -0.42718418000555,
                    -0.8647323530327751,
                    1.2784113037363345,
                    0.6843361553083481,
                    -2.3879088633582746,
                    2.301175060828649,
                    1.070956245503153,
                    -1.538934611504613,
                    -0.27554368861263356,
                    -0.4345281906780343,
                    -0.1225635195617786,
                    -0.3057940226094523,
                    -0.5440331023971098,
                    -0.25469806581054766,
                    0.729929803549154,
                    0.2845032701826971,
                    0.8796877827547301,
                    0.3096783565677376,
                    -0.09020451351829495,
                    0.6492485260091008,
                    -0.39286318346814003,
                    0.18223983019219753,
                    0.31608602969781524,
                    0.3783749812293264,
                    -0.6105293367758104,
                    -1.2522456208004822,
                    0.9363378170652793,
                    0.967806494881223,
                    0.6665061526913741,
                    0.3085837768133963,
                    0.10776069263449843,
                    0.9230555482358656,
                    0.25496475556716325,
                    -2.7056862170233664,
                    0.2799539858115657,
                    1.7030003412190686,
                    -1.286186839248328,
                    1.0647011041539944,
                    -0.35636607696995015,
                    0.7428380565922943,
                    -0.27650737758661964,
                    -1.670017867884655,
                    0.3038138506279776,
                    -0.7980821419747101,
                    -0.3570279370586791,
                    0.5489887819304409,
                    0.020897852327270743,
                    0.6072963967653658,
                    0.017695568271050073,
                    -0.972070564267223,
                    -0.29537737688808186,
                    -0.720732899820343,
                    0.0738031003384268,
                    0.7145732784830341,
                    1.2748920062803442,
                    0.45976725034542687,
                    -0.3935370087284361,
                    0.744872069526164,
                    2.5304199215201217,
                    -0.17908769049160245,
                    0.08881933233660663,
                    0.4083146527899534,
                    -1.0387657582890708,
                    0.8308906577967669,
                    -2.185399034181546,
                    1.2197456002926466,
                    -1.0729051581602427,
                    -2.129116604693635,
                    0.8229826390246741,
                    -1.1193937974051555,
                    1.0542202893181762
                ],
                [
                    -1.1648155595885648,
                    -0.563418623799241,
                    0.665696293537798,
                    -0.36865203927226176,
                    -0.0029833353211650084,
                    -1.4110973067989878,
                    0.2694486643207384,
                    -0.31579817859122383,
                    -0.2757728894391163,
                    1.6307024434962996,
                    -0.036013915784130095,
                    -2.1272670494377044,
                    0.046761598144513285,
                    -0.33796771882857835,
                    -1.1955903651146556,
                    0.5529093321128009,
                    1.266919991953521,
                    -1.8153575301706102,
                    0.05199429753651877,
                    -1.2821069999448256,
                    0.9962598495580458,
                    -0.7893630429716735,
                    -0.5012587305403472,
                    -1.2995398293019669,
                    -0.28384784799804424,
                    0.5254094672971982,
                    -0.08671089116356281,
                    -0.28728741539304004,
                    -1.8509582577568964,
                    0.16420691744066976,
                    0.4550076162063585,
                    1.5257581341842552,
                    -1.188598299597092,
                    0.5053124378359475,
                    -1.3914417566484154,
                    -1.9627543488229886,
                    0.521607907651767,
                    -0.15536258849118226,
                    -0.9530302084466361,
                    -0.05859210938863125,
                    1.4487537004307467,
                    -0.08429154151717887,
                    -0.015740041024813013,
                    1.809522480943179,
                    0.11852778490850845,
                    0.7000847534117105,
                    0.48423141903747363,
                    2.040418061931396,
                    1.5307187213966649,
                    -0.3232249476922727,
                    -2.5980329844446937,
                    0.9688410021672921,
                    -1.2023889746708263,
                    -0.5728084776574452,
                    -2.378844053739794,
                    -1.5198966181635496,
                    0.8395088191401079,
                    -0.8403494579983336,
                    -1.6596799217157594,
                    -0.6738039675525094,
                    -0.19771316280720738,
                    0.06946106331788554,
                    0.5252914748150638,
                    0.3564288440389094,
                    -1.279640770068813,
                    1.5381859211648337,
                    1.17690467317841,
                    1.4672164689835496,
                    -1.2042366222953778,
                    1.0260275047899388,
                    0.06420655741877795,
                    -0.35306526889086887,
                    -0.12571003326720465,
                    0.9463092248649269,
                    1.698231315445544,
                    -1.9746605667838975,
                    -0.7597359894723172,
                    0.23250782643610834,
                    -0.019786672607423016,
                    1.9469785511805604,
                    1.5608545021445934,
                    -0.8735870806585986,
                    -0.24139062418170978,
                    0.3617072824103304,
                    -2.187911143757715,
                    -0.9921252350541787,
                    0.010306726337717448,
                    -0.6534108276364787,
                    0.9743820532538696,
                    1.899725325323442,
                    1.5531464514477817,
                    0.07207801055455745,
                    0.09072844500068335,
                    0.016090525297613064,
                    1.3340496347760618,
                    1.7755211339475048,
                    0.18293836934606253,
                    1.2621194249946541,
                    0.7435323702681191,
                    0.2411196077320576,
                    -0.9219423330995326,
                    -0.5290985614539151,
                    1.6433869956129956,
                    1.2188304360902387,
                    -0.06602964006411892,
                    0.6018158841721819,
                    0.5081338647011727,
                    -0.7578879115622161,
                    -0.04806152786812034,
                    -1.0159403516723147,
                    -1.5226080784621834,
                    -0.20440243065215488,
                    1.6707371868241483,
                    0.7720767856590975,
                    0.5404855971747985,
                    1.402149927211413,
                    -0.453424164162788,
                    -0.8298849516427284,
                    -0.18811884881344365,
                    -0.9244979271399865,
                    0.6857055184335135,
                    0.6538356013168509,
                    1.2950766108326075,
                    -0.17637155599915935,
                    0.8464139593228305,
                    0.13502421157903752,
                    1.3593828008280526,
                    0.5125715291595025
                ],
                [
                    0.5857118481698484,
                    0.5494998321229226,
                    0.6371905810089592,
                    -0.3542861897703141,
                    -2.465816457401199,
                    0.06413737997533464,
                    -1.8385619884992301,
                    0.16854748205255035,
                    0.694527212456022,
                    -0.9150157432103432,
                    -0.3448327475768383,
                    0.3706151328038349,
                    0.30359225568291387,
                    -0.38690306318987305,
                    0.9062562899703899,
                    0.8314326282849186,
                    -0.7971521662236188,
                    0.9776891112846969,
                    -0.7549245789152321,
                    -0.6218789389478832,
                    -0.4170773766620938,
                    -1.1096389987103756,
                    -0.2504479541270355,
                    0.24219628092573434,
                    -0.7139768322998038,
                    0.17357063250504665,
                    1.0334697361043084,
                    0.31442504671696203,
                    -0.0247847094830332,
                    -1.2130052465140848,
                    0.9351012555814631,
                    -1.0528030622434186,
                    -0.6293894845980922,
                    0.21261498481876845,
                    0.420737539401294,
                    0.45396804133015667,
                    -0.24131639413543252,
                    2.11020096159254,
                    -1.7487283845664843,
                    1.589010798970271,
                    0.48697811917089157,
                    0.404886946226195,
                    0.7823171601697686,
                    -1.8515202742827885,
                    0.4977579929002713,
                    0.719811690623406,
                    -1.0886024727423422,
                    -0.9202616181180832,
                    0.371189653033867,
                    0.10390308105110999,
                    0.4854982967465715,
                    0.6238175529477092,
                    -2.220783347120918,
                    0.25256575137007087,
                    -1.723463167521319,
                    -0.039452382465349906,
                    0.9997537084950822,
                    0.007109044871749705,
                    -2.002411064833296,
                    -0.9939460725639228,
                    -0.7621442411837177,
                    1.143330337617176,
                    -0.6901956359185539,
                    -1.816633838303494,
                    -0.4964090331702831,
                    0.04480988567526511,
                    -0.7687470731600415,
                    0.3679811022215045,
                    -0.4462493200637897,
                    0.4786626602242424,
                    1.1041667692180168,
                    1.9241728961997344,
                    0.8739250239021266,
                    0.14831868719382849,
                    0.13692542981559228,
                    0.13810082921559497,
                    -0.3681951687501628,
                    0.12532369393284176,
                    -2.2295944173125357,
                    -1.3525670385234332,
                    -0.9519706135876516,
                    -0.5839037815341299,
                    -0.2649861245827512,
                    0.0722521874594101,
                    -0.05079012365109075,
                    -1.0800206271094004,
                    -1.2578505664305677,
                    -1.4413486586305508,
                    1.0656665426703276,
                    0.5753900086518526,
                    -2.691225169575076,
                    -1.068140687778317,
                    -0.7703151886194067,
                    1.5264109299572604,
                    0.4002091802163324,
                    0.30880992054876744,
                    -0.8104453254930786,
                    0.28234690150864183,
                    1.1857835760151967,
                    1.0699958711373483,
                    -0.16569484044197436,
                    -0.6586611675156215,
                    -0.2551162312496177,
                    -1.9956988773609226,
                    0.405685259381575,
                    -0.08968446239574568,
                    -0.9587506177774586,
                    1.4686989338002199,
                    -0.00429498285470205,
                    -0.9814044221639967,
                    0.8597431126054199,
                    -0.9123575538921374,
                    -0.557827360416565,
                    -0.3476530128311023,
                    -0.6794939782943972,
                    -0.6676185178632581,
                    1.4006659525564085,
                    -1.4002858423281,
                    1.063564053202791,
                    -2.7476181281087433,
                    -1.2350264220345701,
                    -1.007236251084863,
                    1.5119659686114675,
                    -0.3716820610688695,
                    -1.2342132479731973,
                    -1.1262172512494337,
                    0.9831919143431609,
                    -0.049039875002316886
                ],
                [
                    -1.4396130621904262,
                    0.6077672329170253,
                    0.8396061131256399,
                    -0.7418024247863322,
                    1.0578332959002645,
                    -0.2758267670795367,
                    0.11647134896532466,
                    -1.2264941066419075,
                    -0.9758213283240427,
                    -0.14995727803253853,
                    -0.25343941714650947,
                    0.007192024692099261,
                    -0.4925309143499178,
                    0.42911098991928814,
                    0.19503988336066,
                    0.6245558734682971,
                    -0.9970518585829492,
                    0.41559063117171924,
                    0.49700994850023383,
                    0.5668602649335027,
                    0.5466777409724702,
                    0.4726755448365755,
                    1.0673982524885473,
                    0.758017181097919,
                    -1.660048544387761,
                    -1.0036367660968593,
                    0.6448091167543392,
                    0.07493325340833437,
                    -1.7746585302216031,
                    0.6823450735588201,
                    0.8365341761764786,
                    -1.272950869135914,
                    -0.24509777485240608,
                    1.458171411144402,
                    0.5398606810519264,
                    -2.4630592400193847,
                    -0.3221750934340353,
                    0.227762490349402,
                    0.24464465357317638,
                    1.1102932073747036,
                    0.8835374542223808,
                    -0.5644302209498778,
                    -0.5638094453732271,
                    -1.0683755399135073,
                    -0.607448398379627,
                    0.39531109486981697,
                    -1.2783380257321442,
                    0.874005969433553,
                    1.060582901865556,
                    1.0949913409527339,
                    -1.269490675861404,
                    -0.7798976722341223,
                    0.023271372467124064,
                    -0.2946251406475809,
                    1.8846977177001627,
                    -2.122034751304853,
                    1.6958920237267152,
                    -0.9151040374529993,
                    -0.9986798259070737,
                    0.3747243524126754,
                    -0.45670685541621336,
                    -0.2070990944108681,
                    0.1902421792765643,
                    -0.6121001678586685,
                    -1.9317252705911085,
                    1.86736022860786,
                    -1.0588079260818322,
                    -0.16872475224560024,
                    1.7151801591079539,
                    -0.0854197228571966,
                    -1.8415372870892386,
                    0.9111900113441246,
                    -0.12768540018308472,
                    0.7176954433305993,
                    1.1390816801027,
                    0.35494129654899575,
                    -0.16800088243633976,
                    1.2194795843997028,
                    1.0368032710960724,
                    -1.0375654179413212,
                    0.16171125198921107,
                    -1.0803877189799789,
                    -1.0476528425721212,
                    -0.6057956621109465,
                    0.8561426006894108,
                    0.3583256230728241,
                    0.8745255252394906,
                    1.3068925040739656,
                    -0.4838096745928768,
                    0.7486083933464844,
                    -0.08007348494559892,
                    -0.5503159033062067,
                    -1.8230781665888454,
                    -0.8192243846756216,
                    -0.34209031324824846,
                    -0.29913806255866054,
                    0.069053054781148,
                    1.4835351473151934,
                    0.28162788125380617,
                    -1.2987920220374134,
                    0.23866647002098285,
                    0.2708395388355739,
                    -0.07882664733150993,
                    -0.3362951265138102,
                    0.38118074718262235,
                    -0.8511722059400448,
                    0.6065168958138345,
                    1.1686980772510913,
                    -0.4198363856826325,
                    0.8734925004385641,
                    -0.5308643361296912,
                    0.13789068072223543,
                    -1.0949998999200499,
                    0.08396964989512834,
                    -1.5192455222701764,
                    -0.7609480936479451,
                    0.24467416152596766,
                    -0.8056318638187423,
                    0.3179714553960909,
                    -1.347592675182921,
                    2.373551170294237,
                    0.6633686075104264,
                    -2.3586684777730227,
                    -0.5109191304046117,
                    0.005101668224379247,
                    -0.42473020046218013,
                    -0.12357087763626687,
                    -1.4471781725182513
                ],
                [
                    -0.4813377971146172,
                    0.8527842804562763,
                    -0.8326160830088006,
                    0.5745654734828811,
                    2.459873688763883,
                    0.7439066229458432,
                    1.5964498189329055,
                    -1.097641421672133,
                    1.138280868478501,
                    1.09325127055929,
                    1.0291908037254975,
                    -0.26601118778772415,
                    -0.1351512368792438,
                    0.951935303950357,
                    -0.009813900893636531,
                    -0.5082619105022925,
                    -0.3698592368958924,
                    -0.6220599867448653,
                    -0.40273541291511633,
                    -1.8106418675832288,
                    -1.8781590261353414,
                    -0.6378554135620412,
                    1.2001405475571265,
                    -0.034449700028600996,
                    2.278962948792296,
                    -1.6769126978243032,
                    0.18568549818975347,
                    -1.1363794685937232,
                    -0.6087575799740355,
                    0.4439012046170204,
                    0.2955681194727761,
                    0.0856768463940019,
                    -0.030629599049816984,
                    -0.8205430563359732,
                    0.3105831658173289,
                    -2.8446571877392284,
                    -0.7720089029489803,
                    1.0578834607416905,
                    -1.3604658847704179,
                    1.3540012538307193,
                    0.33966056472925416,
                    -0.18748637233396487,
                    1.1163316926634719,
                    -0.9697985630032713,
                    0.5585097261072556,
                    1.8268283932232965,
                    0.3773927842900305,
                    0.5420765582625734,
                    1.1756200432560178,
                    0.09806614249461443,
                    -0.7929280743694328,
                    -0.7420613854514956,
                    0.784637199675266,
                    0.07125890393502388,
                    -0.28847939103888226,
                    -1.6411645072837955,
                    1.0264280192538777,
                    0.16999352355042918,
                    -1.6800270955572616,
                    0.11536372886371002,
                    -0.527641975558708,
                    -0.4654591638194664,
                    -0.5117012061696924,
                    -0.5117866381655026,
                    -2.219245151663774,
                    -0.3298971941979771,
                    -0.24369912304892127,
                    -0.4766770624320345,
                    1.0187593009002653,
                    -0.5344817423241384,
                    -1.4540948622692191,
                    -0.24212400126834835,
                    0.05239564656699359,
                    -0.7990115173423662,
                    0.6833849634253824,
                    -0.34882149095411763,
                    0.027341772128648845,
                    -0.6734165833132523,
                    0.4875277801015874,
                    0.5092258909385343,
                    -2.0783896853215187,
                    -1.3339121358928792,
                    0.1850554345866411,
                    -0.21454037723322084,
                    -1.0580479473332198,
                    -2.3589753039420818,
                    -0.5672377811969135,
                    0.026667497611373,
                    1.1577939025745276,
                    1.4457484125149065,
                    -0.2019734400887839,
                    0.8558500128282654,
                    0.4520073801485344,
                    0.5678172876708294,
                    1.002552255943825,
                    0.47017531033589527,
                    -0.15389581967442556,
                    1.5675120876413802,
                    -0.3813687654910338,
                    -0.33023660316703196,
                    1.3529501038722558,
                    -0.979866027238858,
                    -0.249456956001427,
                    -0.5471967961830193,
                    0.5768037648633059,
                    -1.9097220151718204,
                    0.34903673837149923,
                    0.24062056463445103,
                    0.5458565765119775,
                    -0.41235164792299184,
                    -0.7966898097089451,
                    -0.30830530867712974,
                    -0.8370316572295794,
                    0.46514538863462773,
                    0.14929708183417997,
                    0.6518467285782494,
                    0.5493721739661016,
                    0.21591840047546343,
                    -0.07889061325909752,
                    0.8191580835245712,
                    -0.20224876248758825,
                    0.7477629150618904,
                    0.28399532514919373,
                    -2.011292014496733,
                    -1.2879164835171921,
                    0.3287429366954976,
                    2.0707001125960565,
                    0.7102460641299603
                ],
                [
                    -0.23350593559516414,
                    -0.06880326654215164,
                    1.4154467262451718,
                    -0.21020884332911408,
                    1.782157412238596,
                    1.6059027022325443,
                    -0.7176573466186796,
                    0.829270008246578,
                    -0.054095170587798114,
                    -0.32728418062490083,
                    0.687355065102639,
                    0.12684813316735388,
                    -0.7878519883997123,
                    -1.0837065902313845,
                    -0.4043610533053019,
                    0.26694599895997634,
                    -0.28193394700908214,
                    -0.01177244024213122,
                    1.680122082847266,
                    0.005589959241815275,
                    1.6238277095606748,
                    1.3946752308952637,
                    0.7405709168463528,
                    -0.8342818217391837,
                    0.09090289045315436,
                    0.49646771303953285,
                    0.9654129523306584,
                    -1.1006021053879036,
                    0.8717256535509417,
                    -0.4552022467154193,
                    -0.3225520515542676,
                    -2.4512179078377216,
                    -1.5530430753759359,
                    -1.9738733853482329,
                    0.08259230599788978,
                    1.6258565023390792,
                    -0.2617766145805399,
                    -1.2750122755855768,
                    -0.268797030463117,
                    0.6927660385119868,
                    0.6059344058573177,
                    -0.9175251402409851,
                    -0.7283600124259466,
                    0.61020570866136,
                    -0.679696979077778,
                    -0.6367523917587128,
                    0.4302099176528331,
                    0.1496579762441214,
                    1.4442573246884856,
                    0.2409468918920364,
                    0.387012711859695,
                    -1.1061644486179127,
                    0.6626254762571155,
                    1.0089077836208995,
                    0.07528237862457642,
                    -0.20275556142305456,
                    -0.438877604211236,
                    -0.4171881291301762,
                    1.1911204771434027,
                    0.4229633544111821,
                    -1.1302728747916315,
                    0.002201380177302012,
                    -0.38465664206620864,
                    1.0213460102260945,
                    -0.2086558680165102,
                    -0.6105901459060377,
                    0.31602822245522366,
                    0.4073491860684015,
                    -0.7329175536873447,
                    -0.7196975850505919,
                    -0.26320483851854937,
                    1.3422881539808622,
                    1.0315347414658314,
                    0.15630098915884158,
                    -0.7290079130399669,
                    -0.9072608768673385,
                    1.1167308829970264,
                    1.5008707052524939,
                    -1.2043400857475646,
                    -0.4056107451194461,
                    -0.02656889838080285,
                    -0.92964422505089,
                    -0.45619408067378586,
                    1.096723357938693,
                    0.23749700276054736,
                    -1.6426515442141767,
                    -2.068729118602161,
                    -0.9254946387707154,
                    1.5363170653679319,
                    0.8696726548062896,
                    0.20543692301819355,
                    0.1175097867010142,
                    -0.45073168361160254,
                    -1.9009431653181708,
                    0.17104601722420976,
                    1.062632570606326,
                    0.8353345787434338,
                    0.6562820989542585,
                    1.0545591306579063,
                    0.5185142177829243,
                    1.5695516758288037,
                    1.8244279446995115,
                    1.3454726441005318,
                    -2.106621766134681,
                    0.32778468739009975,
                    -2.015638604375185,
                    0.7804908121011591,
                    0.6941705549497272,
                    -0.921066349004227,
                    1.5659963165131978,
                    0.4892391522881227,
                    -0.5338727663823527,
                    -0.0988796771441195,
                    0.7629346227665481,
                    2.082112277780662,
                    1.5655378502114456,
                    0.10580407966021134,
                    0.6486283906107849,
                    -0.7399282418833341,
                    -0.6011693509801127,
                    0.8804008796916817,
                    -0.23807213093476012,
                    -0.6330452071673125,
                    1.1095113145807307,
                    0.560145505768515,
                    -0.1133054095682407,
                    1.029539985019137,
                    -1.2976414491130321
                ],
                [
                    -0.22055417951129808,
                    0.5394862896371319,
                    0.6690255183583395,
                    1.0967420669229173,
                    -0.8543356368140441,
